svm_type c_svc
kernel_type linear
nr_class 2
total_sv 158
rho 0.977071
label 0 1
nr_sv 77 81
SV
1 1:0.194737 2:37 3:16 4:0 5:0 6:0 7:0 8:1 9:1 10:1 11:0 12:0 13:56 14:55 15:0 16:0 17:0 18:0 19:0 20:369 21:0 
1 1:0.100239 2:7 3:0 4:0 5:1 6:0 7:0 8:0 9:0 10:0 11:0 12:0 13:0 14:0 15:0 16:0 17:0 18:0 19:0 20:56 21:0 
1 1:0 2:0 3:0 4:0 5:1 6:0 7:0 8:0 9:0 10:0 11:0 12:0 13:0 14:0 15:0 16:0 17:0 18:0 19:0 20:12 21:0 
1 1:0.521764 2:52 3:10 4:0 5:1 6:0 7:0 8:2 9:1 10:1 11:0 12:2 13:14 14:14 15:0 16:0 17:0 18:0 19:1 20:258 21:0 
1 1:0.493069 2:183 3:21 4:0 5:1 6:0 7:0 8:1 9:1 10:1 11:0 12:0 13:155 14:0 15:1 16:0 17:0 18:0 19:1 20:115 21:0 
1 1:0.777131 2:430 3:34 4:0 5:1 6:0 7:0 8:3 9:1 10:1 11:0 12:1 13:51 14:26 15:1 16:0 17:1 18:1 19:0 20:230 21:0 
1 1:0.660623 2:782 3:27 4:0 5:0 6:0 7:0 8:1 9:1 10:1 11:0 12:3 13:3 14:15 15:0 16:0 17:0 18:1 19:1 20:83 21:0 
1 1:0.659746 2:43 3:14 4:0 5:1 6:0 7:0 8:1 9:0 10:0 11:0 12:0 13:0 14:4 15:0 16:0 17:0 18:0 19:0 20:90 21:0 
1 1:0.280851 2:28 3:6 4:0 5:0 6:0 7:0 8:2 9:0 10:1 11:0 12:0 13:0 14:12 15:0 16:0 17:0 18:0 19:0 20:57 21:0 
1 1:0.144828 2:74 3:0 4:0 5:0 6:0 7:0 8:1 9:1 10:0 11:0 12:1 13:0 14:0 15:0 16:0 17:0 18:1 19:1 20:69 21:0 
0.5933358640455546 1:0.0785402 2:143 3:139 4:0 5:0 6:0 7:0 8:1 9:1 10:1 11:0 12:3 13:50 14:432 15:0 16:0 17:3 18:1 19:0 20:1176 21:0 
1 1:0 2:8 3:0 4:0 5:0 6:0 7:0 8:2 9:0 10:1 11:0 12:22 13:0 14:12 15:1 16:0 17:0 18:0 19:0 20:141 21:0 
1 1:0.666855 2:422 3:22 4:0 5:1 6:0 7:0 8:3 9:1 10:1 11:0 12:0 13:17 14:80 15:0 16:0 17:2 18:1 19:0 20:327 21:0 
1 1:0.477244 2:210 3:35 4:0 5:1 6:0 7:1 8:0 9:1 10:1 11:0 12:0 13:3 14:19 15:0 16:0 17:12 18:1 19:1 20:211 21:0 
1 1:0.117665 2:130 3:0 4:0 5:1 6:0 7:0 8:1 9:1 10:1 11:0 12:0 13:3 14:23 15:0 16:0 17:1 18:0 19:0 20:133 21:0 
1 1:0.496923 2:25 3:0 4:0 5:1 6:0 7:0 8:1 9:0 10:0 11:0 12:0 13:2 14:5 15:0 16:0 17:0 18:0 19:0 20:69 21:0 
1 1:0.649175 2:54 3:0 4:0 5:1 6:0 7:0 8:1 9:0 10:0 11:0 12:0 13:3 14:3 15:0 16:0 17:1 18:1 19:0 20:67 21:1 
1 1:0.389764 2:63 3:0 4:0 5:0 6:0 7:0 8:3 9:0 10:0 11:0 12:0 13:2 14:5 15:0 16:0 17:0 18:0 19:0 20:66 21:0 
1 1:0.0573152 2:7 3:0 4:0 5:0 6:0 7:0 8:1 9:1 10:1 11:0 12:0 13:1 14:9 15:0 16:0 17:0 18:0 19:0 20:204 21:0 
1 1:0.284314 2:17 3:3 4:0 5:0 6:0 7:0 8:0 9:0 10:0 11:0 12:1 13:0 14:6 15:0 16:0 17:0 18:0 19:0 20:177 21:0 
1 1:0 2:0 3:0 4:0 5:0 6:0 7:0 8:2 9:0 10:0 11:2 12:0 13:0 14:0 15:0 16:0 17:0 18:0 19:0 20:46 21:0 
1 1:0.708427 2:116 3:31 4:0 5:1 6:0 7:0 8:1 9:1 10:0 11:0 12:0 13:0 14:5 15:1 16:0 17:2 18:0 19:0 20:68 21:0 
1 1:0.510077 2:244 3:2 4:0 5:1 6:0 7:0 8:1 9:1 10:1 11:0 12:0 13:14 14:11 15:0 16:0 17:0 18:1 19:0 20:279 21:0 
1 1:0.276623 2:48 3:15 4:0 5:0 6:0 7:0 8:2 9:1 10:1 11:0 12:0 13:15 14:27 15:1 16:1 17:0 18:1 19:0 20:228 21:0 
1 1:0.703409 2:32 3:2 4:0 5:1 6:0 7:0 8:1 9:0 10:0 11:0 12:0 13:0 14:0 15:0 16:0 17:2 18:0 19:0 20:52 21:0 
0.4842183848586943 1:0.340034 2:327 3:124 4:0 5:0 6:0 7:0 8:0 9:1 10:1 11:0 12:1 13:57 14:138 15:1 16:0 17:0 18:1 19:1 20:2210 21:0 
1 1:0.0205573 2:22 3:2 4:0 5:1 6:0 7:0 8:0 9:1 10:1 11:0 12:0 13:36 14:223 15:0 16:0 17:0 18:0 19:0 20:124 21:0 
0.9748745498581217 1:0 2:1 3:0 4:0 5:1 6:0 7:0 8:0 9:0 10:0 11:0 12:0 13:0 14:1 15:0 16:0 17:0 18:0 19:0 20:42 21:0 
1 1:0.466973 2:125 3:2 4:0 5:0 6:0 7:0 8:1 9:1 10:0 11:0 12:0 13:0 14:7 15:1 16:0 17:13 18:1 19:0 20:117 21:0 
1 1:0.244938 2:126 3:14 4:0 5:0 6:0 7:0 8:2 9:1 10:1 11:0 12:0 13:0 14:139 15:0 16:0 17:0 18:1 19:0 20:80 21:0 
0.2367847274050176 1:0.676914 2:94 3:2 4:0 5:1 6:0 7:0 8:2 9:0 10:0 11:0 12:0 13:0 14:2 15:0 16:0 17:0 18:1 19:0 20:74 21:0 
0.7832915418823893 1:0 2:1 3:0 4:0 5:1 6:0 7:0 8:0 9:0 10:0 11:0 12:0 13:0 14:1 15:0 16:0 17:0 18:0 19:0 20:42 21:0 
1 1:0.861103 2:409 3:26 4:0 5:1 6:0 7:0 8:3 9:1 10:0 11:0 12:0 13:4 14:3 15:1 16:0 17:1 18:1 19:0 20:75 21:0 
1 1:0.804025 2:281 3:3 4:0 5:1 6:0 7:0 8:1 9:1 10:1 11:2 12:0 13:0 14:6 15:0 16:0 17:0 18:1 19:0 20:126 21:0 
1 1:0 2:0 3:0 4:0 5:0 6:0 7:0 8:2 9:0 10:0 11:2 12:0 13:0 14:0 15:0 16:0 17:0 18:0 19:0 20:45 21:0 
1 1:0.0701754 2:21 3:16 4:0 5:1 6:0 7:0 8:2 9:1 10:0 11:0 12:0 13:0 14:0 15:0 16:0 17:0 18:0 19:0 20:47 21:0 
1 1:0.489694 2:83 3:4 4:0 5:1 6:0 7:0 8:2 9:1 10:0 11:0 12:5 13:6 14:2 15:0 16:0 17:2 18:1 19:1 20:157 21:0 
1 1:0.45327 2:326 3:7 4:0 5:1 6:0 7:0 8:1 9:1 10:1 11:0 12:0 13:4 14:74 15:0 16:0 17:0 18:1 19:0 20:156 21:0 
1 1:0 2:0 3:0 4:0 5:1 6:0 7:1 8:0 9:0 10:0 11:0 12:0 13:0 14:0 15:0 16:0 17:0 18:0 19:0 20:0 21:0 
1 1:0.318182 2:100 3:1 4:0 5:1 6:0 7:0 8:1 9:1 10:1 11:0 12:0 13:1 14:18 15:0 16:0 17:0 18:0 19:1 20:216 21:0 
1 1:0.680404 2:307 3:3 4:0 5:1 6:0 7:0 8:1 9:1 10:1 11:0 12:0 13:2 14:44 15:1 16:0 17:0 18:1 19:0 20:451 21:0 
1 1:0.606708 2:221 3:60 4:0 5:1 6:0 7:0 8:1 9:1 10:0 11:0 12:0 13:36 14:16 15:0 16:0 17:1 18:1 19:0 20:80 21:0 
1 1:0.583564 2:54 3:7 4:0 5:1 6:0 7:0 8:0 9:1 10:1 11:1 12:1 13:4 14:17 15:0 16:0 17:3 18:1 19:0 20:226 21:0 
1 1:0.68612 2:165 3:12 4:0 5:0 6:0 7:0 8:2 9:1 10:0 11:0 12:0 13:2 14:4 15:0 16:0 17:1 18:1 19:0 20:126 21:0 
1 1:0.665127 2:454 3:18 4:0 5:1 6:0 7:0 8:1 9:1 10:1 11:0 12:0 13:2 14:26 15:1 16:0 17:1 18:1 19:1 20:397 21:0 
1 1:0 2:0 3:0 4:0 5:1 6:0 7:0 8:0 9:0 10:0 11:0 12:0 13:0 14:0 15:0 16:0 17:0 18:0 19:0 20:0 21:0 
1 1:0.384564 2:109 3:4 4:0 5:1 6:0 7:0 8:0 9:1 10:0 11:0 12:0 13:6 14:2 15:0 16:0 17:22 18:1 19:0 20:69 21:0 
1 1:0.831874 2:53 3:0 4:0 5:1 6:0 7:0 8:2 9:0 10:0 11:0 12:0 13:4 14:0 15:0 16:0 17:0 18:1 19:0 20:61 21:0 
1 1:0.489982 2:38 3:0 4:0 5:1 6:0 7:0 8:2 9:0 10:0 11:0 12:0 13:1 14:2 15:0 16:0 17:0 18:0 19:0 20:55 21:0 
1 1:0.489384 2:66 3:5 4:0 5:1 6:0 7:0 8:1 9:0 10:0 11:0 12:0 13:2 14:0 15:0 16:1 17:1 18:0 19:0 20:86 21:0 
1 1:0.732372 2:34 3:0 4:0 5:1 6:0 7:0 8:1 9:0 10:0 11:0 12:0 13:31 14:0 15:0 16:0 17:2 18:0 19:0 20:93 21:0 
1 1:0.357262 2:35 3:0 4:0 5:0 6:1 7:0 8:2 9:0 10:0 11:0 12:0 13:3 14:0 15:0 16:0 17:2 18:0 19:0 20:38 21:0 
1 1:0 2:0 3:0 4:0 5:1 6:0 7:0 8:0 9:0 10:0 11:0 12:0 13:0 14:1 15:0 16:0 17:0 18:0 19:0 20:36 21:0 
1 1:0.565465 2:63 3:0 4:0 5:0 6:0 7:0 8:2 9:0 10:1 11:0 12:0 13:0 14:11 15:0 16:0 17:0 18:1 19:0 20:197 21:0 
0.07293829637813395 1:0.187898 2:273 3:2 4:0 5:1 6:0 7:1 8:0 9:1 10:1 11:0 12:0 13:321 14:96 15:0 16:0 17:14 18:0 19:1 20:253 21:0 
1 1:0.468944 2:49 3:6 4:0 5:1 6:0 7:0 8:1 9:1 10:1 11:0 12:0 13:18 14:7 15:0 16:0 17:2 18:1 19:0 20:123 21:0 
1 1:0.265455 2:4 3:3 4:0 5:1 6:0 7:0 8:1 9:0 10:0 11:0 12:0 13:1 14:0 15:0 16:0 17:0 18:0 19:0 20:82 21:0 
1 1:0.149673 2:66 3:0 4:0 5:0 6:0 7:0 8:3 9:1 10:0 11:0 12:0 13:1 14:0 15:0 16:0 17:0 18:1 19:0 20:63 21:0 
1 1:0.206147 2:64 3:24 4:0 5:0 6:0 7:0 8:1 9:1 10:1 11:0 12:0 13:3 14:60 15:1 16:0 17:0 18:0 19:0 20:690 21:10 
1 1:0.480789 2:52 3:2 4:0 5:0 6:0 7:0 8:0 9:0 10:0 11:0 12:0 13:0 14:2 15:1 16:0 17:4 18:1 19:0 20:46 21:0 
1 1:0 2:0 3:0 4:0 5:0 6:0 7:0 8:2 9:0 10:0 11:2 12:0 13:0 14:2 15:0 16:0 17:0 18:0 19:0 20:54 21:0 
1 1:0 2:0 3:0 4:0 5:1 6:0 7:0 8:0 9:0 10:0 11:0 12:0 13:0 14:0 15:0 16:0 17:0 18:0 19:0 20:0 21:0 
1 1:0.445676 2:122 3:1 4:0 5:1 6:0 7:0 8:0 9:1 10:1 11:0 12:0 13:7 14:21 15:0 16:0 17:4 18:1 19:0 20:261 21:0 
1 1:0.686908 2:139 3:17 4:0 5:1 6:0 7:0 8:2 9:1 10:1 11:0 12:0 13:0 14:20 15:0 16:0 17:2 18:1 19:0 20:276 21:0 
1 1:0 2:1 3:0 4:0 5:1 6:0 7:0 8:0 9:0 10:0 11:0 12:0 13:0 14:1 15:0 16:0 17:0 18:0 19:0 20:42 21:0 
1 1:0.487221 2:57 3:14 4:0 5:1 6:0 7:1 8:1 9:1 10:1 11:0 12:1 13:8 14:13 15:0 16:0 17:0 18:0 19:1 20:129 21:0 
1 1:0.265495 2:42 3:3 4:0 5:0 6:0 7:0 8:1 9:1 10:1 11:0 12:0 13:33 14:13 15:0 16:0 17:2 18:1 19:0 20:138 21:0 
1 1:0.215909 2:23 3:15 4:0 5:0 6:0 7:0 8:2 9:0 10:0 11:0 12:5 13:1 14:1 15:0 16:0 17:1 18:0 19:0 20:132 21:0 
1 1:0.156114 2:148 3:37 4:0 5:1 6:0 7:1 8:0 9:1 10:0 11:0 12:0 13:52 14:40 15:0 16:0 17:14 18:0 19:1 20:72 21:0 
1 1:0.329154 2:249 3:72 4:0 5:1 6:0 7:1 8:0 9:1 10:1 11:0 12:2 13:9 14:26 15:0 16:0 17:20 18:1 19:1 20:165 21:0 
1 1:0 2:0 3:0 4:1 5:0 6:0 7:0 8:0 9:0 10:0 11:0 12:0 13:0 14:0 15:0 16:0 17:0 18:0 19:0 20:59 21:0 
1 1:0.538351 2:59 3:0 4:0 5:1 6:0 7:0 8:1 9:1 10:0 11:0 12:0 13:3 14:0 15:1 16:3 17:2 18:1 19:0 20:129 21:1 
1 1:0.487221 2:57 3:14 4:0 5:1 6:0 7:1 8:1 9:1 10:1 11:0 12:1 13:8 14:13 15:0 16:0 17:0 18:0 19:1 20:129 21:0 
1 1:0.859428 2:256 3:62 4:0 5:1 6:0 7:0 8:2 9:1 10:0 11:0 12:0 13:0 14:2 15:1 16:0 17:2 18:1 19:0 20:92 21:2 
1 1:0.610619 2:43 3:5 4:0 5:1 6:0 7:0 8:2 9:0 10:0 11:0 12:0 13:0 14:0 15:0 16:0 17:0 18:0 19:0 20:59 21:0 
1 1:0.110599 2:7 3:10 4:0 5:0 6:0 7:0 8:1 9:0 10:0 11:0 12:0 13:0 14:6 15:0 16:0 17:1 18:1 19:0 20:215 21:0 
0.9554373100051647 1:0.67308 2:463 3:64 4:0 5:1 6:0 7:0 8:3 9:1 10:1 11:0 12:0 13:12 14:85 15:1 16:0 17:0 18:1 19:0 20:305 21:4 
-1 1:0.480349 2:9 3:0 4:0 5:1 6:0 7:0 8:0 9:0 10:0 11:0 12:0 13:1 14:0 15:0 16:0 17:0 18:0 19:0 20:25 21:0 
-1 1:0.480349 2:9 3:0 4:0 5:1 6:0 7:0 8:0 9:0 10:0 11:0 12:0 13:1 14:0 15:0 16:0 17:0 18:0 19:0 20:25 21:0 
-1 1:0.134271 2:45 3:7 4:0 5:1 6:0 7:0 8:1 9:1 10:1 11:0 12:0 13:25 14:50 15:0 16:0 17:0 18:1 19:0 20:283 21:0 
-1 1:0.446545 2:69 3:7 4:0 5:1 6:0 7:1 8:0 9:1 10:0 11:0 12:0 13:3 14:1 15:0 16:0 17:1 18:0 19:0 20:50 21:0 
-0.007237013485948979 1:0.688867 2:297 3:1 4:0 5:0 6:0 7:0 8:2 9:1 10:1 11:0 12:7 13:0 14:13 15:1 16:0 17:1 18:1 19:0 20:191 21:0 
-1 1:0.182948 2:57 3:0 4:0 5:0 6:0 7:0 8:1 9:1 10:1 11:0 12:0 13:3 14:52 15:0 16:0 17:0 18:0 19:1 20:379 21:0 
-0.9300114876607157 1:0.404239 2:563 3:117 4:0 5:1 6:0 7:0 8:1 9:1 10:0 11:0 12:0 13:0 14:0 15:1 16:0 17:1 18:1 19:0 20:62 21:0 
-1 1:0.834213 2:131 3:22 4:0 5:1 6:0 7:0 8:0 9:0 10:0 11:0 12:0 13:1 14:0 15:1 16:0 17:0 18:0 19:0 20:36 21:0 
-1 1:0 2:10 3:10 4:0 5:1 6:0 7:0 8:0 9:1 10:0 11:0 12:0 13:0 14:0 15:0 16:0 17:0 18:0 19:0 20:60 21:0 
-0.5366627818616556 1:0.184547 2:101 3:13 4:0 5:0 6:0 7:0 8:2 9:1 10:1 11:1 12:34 13:6 14:23 15:0 16:0 17:0 18:1 19:0 20:126 21:0 
-1 1:0 2:0 3:0 4:0 5:1 6:0 7:0 8:3 9:0 10:0 11:0 12:0 13:0 14:0 15:0 16:0 17:0 18:0 19:0 20:19 21:0 
-1 1:0.492212 2:85 3:1 4:0 5:1 6:0 7:0 8:0 9:1 10:1 11:0 12:0 13:7 14:8 15:0 16:0 17:1 18:1 19:0 20:310 21:0 
-1 1:0.152402 2:259 3:60 4:0 5:1 6:0 7:0 8:1 9:1 10:1 11:0 12:0 13:0 14:128 15:0 16:0 17:0 18:1 19:0 20:59 21:0 
-1 1:0.407069 2:330 3:40 4:0 5:0 6:0 7:0 8:2 9:1 10:1 11:4 12:23 13:10 14:163 15:0 16:0 17:0 18:1 19:0 20:379 21:0 
-1 1:0.218598 2:160 3:57 4:0 5:0 6:0 7:0 8:2 9:1 10:1 11:0 12:0 13:0 14:44 15:1 16:0 17:1 18:1 19:0 20:540 21:0 
-1 1:0.0702008 2:139 3:136 4:0 5:0 6:0 7:0 8:2 9:1 10:1 11:0 12:2 13:56 14:39 15:0 16:0 17:0 18:1 19:0 20:332 21:0 
-1 1:0.831391 2:81 3:4 4:0 5:1 6:0 7:0 8:3 9:0 10:0 11:0 12:0 13:8 14:0 15:0 16:0 17:0 18:0 19:0 20:19 21:0 
-1 1:0.724026 2:105 3:10 4:0 5:1 6:0 7:0 8:0 9:0 10:0 11:0 12:0 13:0 14:0 15:1 16:0 17:0 18:0 19:0 20:84 21:0 
-1 1:0.778269 2:98 3:21 4:0 5:1 6:0 7:0 8:0 9:0 10:0 11:1 12:0 13:10 14:1 15:0 16:0 17:0 18:1 19:0 20:42 21:0 
-1 1:0.778269 2:98 3:21 4:0 5:1 6:0 7:0 8:0 9:0 10:0 11:1 12:0 13:10 14:1 15:0 16:0 17:0 18:1 19:0 20:42 21:0 
-1 1:0.446545 2:69 3:7 4:0 5:1 6:0 7:0 8:0 9:1 10:0 11:0 12:0 13:3 14:1 15:0 16:0 17:1 18:0 19:0 20:50 21:0 
-1 1:0.277629 2:147 3:28 4:0 5:0 6:0 7:0 8:2 9:1 10:0 11:0 12:1 13:0 14:1 15:1 16:0 17:1 18:0 19:0 20:57 21:0 
-1 1:0.480349 2:9 3:0 4:0 5:1 6:0 7:0 8:0 9:0 10:0 11:0 12:0 13:1 14:0 15:0 16:0 17:0 18:0 19:0 20:25 21:0 
-1 1:0.203328 2:176 3:0 4:0 5:1 6:0 7:0 8:2 9:1 10:0 11:0 12:0 13:0 14:5 15:0 16:0 17:0 18:1 19:0 20:142 21:0 
-1 1:0.801173 2:119 3:1 4:0 5:1 6:0 7:0 8:1 9:0 10:0 11:0 12:0 13:0 14:1 15:0 16:0 17:0 18:1 19:0 20:28 21:0 
-1 1:0.55924 2:72 3:1 4:0 5:1 6:0 7:0 8:0 9:1 10:0 11:0 12:0 13:3 14:3 15:0 16:0 17:1 18:0 19:1 20:44 21:0 
-1 1:0 2:0 3:0 4:0 5:0 6:0 7:0 8:3 9:0 10:0 11:0 12:0 13:0 14:0 15:0 16:0 17:0 18:0 19:0 20:122 21:0 
-1 1:0.353276 2:17 3:1 4:0 5:1 6:0 7:1 8:0 9:0 10:0 11:0 12:0 13:0 14:1 15:0 16:0 17:0 18:0 19:0 20:115 21:0 
-1 1:0.509829 2:402 3:24 4:0 5:0 6:0 7:0 8:3 9:1 10:1 11:0 12:0 13:0 14:41 15:1 16:0 17:0 18:0 19:1 20:208 21:0 
-1 1:0.631891 2:140 3:0 4:0 5:1 6:0 7:0 8:0 9:0 10:1 11:0 12:0 13:3 14:5 15:0 16:0 17:0 18:1 19:0 20:170 21:0 
-1 1:0.562212 2:20 3:0 4:0 5:1 6:0 7:1 8:0 9:0 10:0 11:0 12:0 13:4 14:0 15:0 16:0 17:0 18:0 19:0 20:46 21:0 
-0.2347880691056588 1:0.270399 2:186 3:18 4:1 5:0 6:0 7:0 8:0 9:1 10:1 11:0 12:0 13:1 14:103 15:0 16:0 17:10 18:1 19:0 20:713 21:0 
-1 1:0 2:9 3:0 4:0 5:0 6:0 7:0 8:1 9:0 10:0 11:0 12:0 13:0 14:0 15:0 16:0 17:0 18:0 19:0 20:40 21:0 
-1 1:0.503539 2:42 3:0 4:0 5:0 6:0 7:0 8:0 9:0 10:1 11:0 12:0 13:8 14:4 15:0 16:0 17:0 18:1 19:0 20:201 21:0 
-1 1:0.778877 2:220 3:1 4:0 5:1 6:0 7:0 8:1 9:1 10:1 11:0 12:0 13:30 14:142 15:0 16:0 17:1 18:0 19:1 20:102 21:0 
-1 1:0.537449 2:132 3:0 4:0 5:1 6:0 7:1 8:0 9:1 10:0 11:0 12:0 13:20 14:6 15:0 16:0 17:1 18:0 19:1 20:69 21:0 
-1 1:0.591367 2:143 3:3 4:0 5:1 6:0 7:0 8:1 9:1 10:0 11:0 12:0 13:0 14:16 15:0 16:0 17:3 18:1 19:0 20:69 21:0 
-1 1:0.228814 2:8 3:0 4:0 5:0 6:0 7:0 8:1 9:0 10:0 11:0 12:0 13:0 14:0 15:0 16:0 17:0 18:0 19:0 20:46 21:0 
-1 1:0.0413728 2:16 3:4 4:0 5:0 6:0 7:0 8:3 9:1 10:1 11:0 12:0 13:0 14:26 15:0 16:0 17:0 18:0 19:0 20:375 21:0 
-1 1:0.22093 2:7 3:0 4:0 5:1 6:0 7:0 8:0 9:0 10:0 11:0 12:0 13:0 14:0 15:0 16:0 17:0 18:0 19:0 20:43 21:0 
-1 1:0.70624 2:190 3:0 4:0 5:1 6:0 7:0 8:0 9:0 10:0 11:0 12:0 13:37 14:3 15:0 16:0 17:0 18:1 19:0 20:61 21:0 
-1 1:0 2:0 3:0 4:0 5:0 6:0 7:0 8:2 9:0 10:0 11:0 12:0 13:0 14:0 15:0 16:0 17:0 18:0 19:0 20:29 21:0 
-1 1:0.927919 2:130 3:0 4:0 5:1 6:0 7:0 8:1 9:0 10:0 11:0 12:0 13:6 14:0 15:0 16:0 17:0 18:1 19:0 20:42 21:0 
-1 1:0.146048 2:16 3:2 4:0 5:1 6:0 7:0 8:1 9:0 10:1 11:2 12:0 13:0 14:4 15:0 16:0 17:0 18:0 19:0 20:174 21:0 
-0.1967785537587304 1:0.262587 2:79 3:12 4:0 5:0 6:0 7:0 8:2 9:1 10:1 11:0 12:0 13:0 14:41 15:0 16:0 17:0 18:0 19:0 20:287 21:55 
-1 1:0.593116 2:119 3:13 4:0 5:1 6:0 7:0 8:4 9:1 10:0 11:0 12:0 13:6 14:7 15:0 16:2 17:9 18:1 19:1 20:49 21:0 
-1 1:0.569027 2:48 3:3 4:0 5:0 6:0 7:0 8:2 9:0 10:1 11:0 12:0 13:2 14:1 15:0 16:0 17:0 18:0 19:0 20:91 21:0 
-0.4789284993346855 1:0.478831 2:56 3:30 4:0 5:0 6:0 7:0 8:2 9:1 10:1 11:0 12:0 13:8 14:9 15:0 16:0 17:0 18:1 19:0 20:38 21:0 
-0.1621322427537001 1:0.70229 2:210 3:0 4:0 5:1 6:0 7:0 8:1 9:1 10:0 11:0 12:0 13:11 14:12 15:0 16:1 17:4 18:0 19:1 20:72 21:0 
-1 1:0.313657 2:217 3:0 4:0 5:1 6:0 7:0 8:0 9:1 10:1 11:0 12:0 13:125 14:7 15:0 16:0 17:0 18:0 19:1 20:270 21:0 
-1 1:0.047043 2:3 3:1 4:0 5:1 6:0 7:1 8:0 9:1 10:1 11:0 12:0 13:11 14:4 15:0 16:0 17:0 18:0 19:0 20:100 21:0 
-1 1:0.486176 2:190 3:25 4:0 5:1 6:0 7:0 8:3 9:1 10:1 11:0 12:0 13:2 14:13 15:0 16:0 17:0 18:1 19:0 20:73 21:0 
-0.1045181673994061 1:0.0884157 2:344 3:20 4:1 5:0 6:0 7:0 8:0 9:1 10:1 11:0 12:0 13:39 14:177 15:0 16:0 17:0 18:0 19:0 20:1864 21:0 
-1 1:0.357624 2:208 3:24 4:0 5:1 6:0 7:0 8:1 9:1 10:1 11:0 12:0 13:0 14:27 15:1 16:0 17:0 18:1 19:0 20:153 21:0 
-1 1:0.751821 2:126 3:0 4:0 5:1 6:1 7:0 8:3 9:1 10:0 11:0 12:0 13:5 14:39 15:0 16:0 17:0 18:0 19:1 20:38 21:0 
-0.09343213502653956 1:0.171429 2:2 3:1 4:1 5:0 6:0 7:0 8:0 9:0 10:0 11:0 12:0 13:0 14:1 15:1 16:0 17:0 18:0 19:0 20:36 21:0 
-1 1:0.953438 2:343 3:0 4:0 5:1 6:0 7:0 8:1 9:0 10:0 11:0 12:0 13:0 14:1 15:0 16:0 17:0 18:1 19:0 20:97 21:6 
-1 1:0.238046 2:118 3:35 4:0 5:1 6:0 7:0 8:2 9:1 10:1 11:0 12:0 13:3 14:151 15:0 16:0 17:35 18:1 19:0 20:303 21:0 
-1 1:0.303502 2:38 3:1 4:0 5:1 6:0 7:0 8:0 9:1 10:0 11:0 12:0 13:4 14:0 15:0 16:0 17:1 18:0 19:0 20:29 21:0 
-1 1:0.45176 2:102 3:7 4:0 5:0 6:0 7:0 8:1 9:1 10:1 11:0 12:1 13:16 14:19 15:0 16:0 17:1 18:1 19:0 20:399 21:0 
-1 1:0.0861438 2:226 3:0 4:0 5:1 6:0 7:0 8:0 9:1 10:0 11:0 12:0 13:168 14:2 15:0 16:0 17:0 18:1 19:0 20:43 21:0 
-1 1:0 2:0 3:0 4:0 5:1 6:0 7:0 8:1 9:0 10:0 11:0 12:0 13:0 14:0 15:0 16:0 17:0 18:0 19:0 20:0 21:0 
-1 1:0.11534 2:13 3:4 4:0 5:0 6:0 7:0 8:2 9:1 10:1 11:0 12:0 13:44 14:12 15:0 16:0 17:1 18:0 19:0 20:1633 21:0 
-0.3563917240460497 1:0.823685 2:346 3:1 4:1 5:0 6:0 7:0 8:0 9:1 10:0 11:0 12:0 13:0 14:31 15:1 16:0 17:50 18:1 19:0 20:80 21:0 
-1 1:0.85113 2:126 3:0 4:0 5:1 6:0 7:0 8:2 9:0 10:0 11:0 12:0 13:0 14:0 15:0 16:0 17:0 18:1 19:0 20:53 21:0 
-1 1:0.161597 2:194 3:91 4:0 5:1 6:0 7:0 8:0 9:1 10:1 11:0 12:0 13:1 14:140 15:0 16:0 17:0 18:0 19:1 20:219 21:0 
-1 1:0.148825 2:17 3:1 4:0 5:0 6:0 7:0 8:1 9:1 10:1 11:0 12:0 13:25 14:10 15:1 16:0 17:1 18:0 19:0 20:141 21:0 
-1 1:0 2:0 3:0 4:0 5:0 6:0 7:0 8:1 9:0 10:0 11:0 12:0 13:0 14:0 15:0 16:0 17:0 18:0 19:0 20:0 21:0 
-1 1:0.488058 2:86 3:0 4:0 5:0 6:0 7:0 8:3 9:1 10:1 11:0 12:0 13:7 14:15 15:1 16:1 17:0 18:0 19:0 20:78 21:0 
-1 1:0 2:0 3:1 4:0 5:0 6:0 7:1 8:3 9:0 10:0 11:0 12:0 13:0 14:1 15:0 16:0 17:0 18:0 19:0 20:74 21:0 
-1 1:0.00419141 2:47 3:31 4:0 5:0 6:1 7:0 8:2 9:1 10:1 11:0 12:0 13:0 14:25 15:0 16:0 17:0 18:1 19:0 20:162 21:0 
-1 1:0.735609 2:107 3:45 4:0 5:1 6:0 7:0 8:1 9:1 10:1 11:0 12:0 13:0 14:5 15:0 16:0 17:0 18:1 19:0 20:95 21:0 
-1 1:0.683209 2:207 3:0 4:0 5:1 6:0 7:0 8:1 9:1 10:0 11:0 12:0 13:12 14:8 15:0 16:1 17:6 18:0 19:1 20:281 21:0 
-1 1:0.462222 2:94 3:3 4:0 5:0 6:0 7:0 8:1 9:0 10:0 11:0 12:0 13:1 14:0 15:0 16:0 17:0 18:1 19:0 20:14 21:0 
-1 1:0.539521 2:226 3:0 4:0 5:1 6:0 7:0 8:0 9:1 10:1 11:0 12:0 13:7 14:76 15:0 16:0 17:2 18:1 19:1 20:261 21:0 
-1 1:0.13479 2:70 3:0 4:1 5:0 6:0 7:0 8:0 9:1 10:1 11:0 12:2 13:11 14:66 15:1 16:0 17:0 18:1 19:0 20:207 21:0 
-1 1:0.53719 2:48 3:11 4:0 5:0 6:0 7:0 8:5 9:0 10:0 11:0 12:0 13:0 14:1 15:1 16:0 17:0 18:0 19:0 20:29 21:0 
-1 1:0.600129 2:369 3:0 4:0 5:0 6:0 7:0 8:2 9:1 10:0 11:0 12:0 13:0 14:9 15:1 16:0 17:1 18:1 19:1 20:360 21:0 
-1 1:0.205882 2:37 3:0 4:0 5:0 6:0 7:0 8:1 9:0 10:0 11:0 12:0 13:0 14:0 15:0 16:0 17:0 18:0 19:0 20:56 21:0 
-1 1:0.695732 2:122 3:0 4:0 5:1 6:0 7:0 8:1 9:1 10:1 11:0 12:0 13:3 14:6 15:1 16:1 17:1 18:1 19:0 20:268 21:0 
-1 1:0.335884 2:142 3:8 4:0 5:1 6:0 7:0 8:1 9:1 10:1 11:0 12:0 13:3 14:95 15:0 16:0 17:36 18:1 19:0 20:465 21:1 
